digraph Tree {
node [shape=box, style="filled", color="black"] ;
0 [label="TotalWorkingYears <= -1.258\ngini = 0.271\nsamples = 3086\nvalue = [2588, 498]\nclass = A", fillcolor="#ea995f"] ;
1 [label="MaritalStatus_Single <= 0.5\ngini = 0.5\nsamples = 187\nvalue = [96, 91]\nclass = A", fillcolor="#fef8f5"] ;
0 -> 1 [labeldistance=2.5, labelangle=45, headlabel="True"] ;
2 [label="BusinessTravel_Travel_Frequently <= 0.5\ngini = 0.388\nsamples = 91\nvalue = [67, 24]\nclass = A", fillcolor="#eeae80"] ;
1 -> 2 ;
3 [label="Department_Human Resources <= 0.5\ngini = 0.301\nsamples = 76\nvalue = [62, 14]\nclass = A", fillcolor="#eb9d66"] ;
2 -> 3 ;
4 [label="hrs <= 1.916\ngini = 0.256\nsamples = 73\nvalue = [62, 11]\nclass = A", fillcolor="#ea975c"] ;
3 -> 4 ;
5 [label="JobSatisfaction <= -1.119\ngini = 0.221\nsamples = 71\nvalue = [62, 9]\nclass = A", fillcolor="#e99356"] ;
4 -> 5 ;
6 [label="DistanceFromHome <= -0.826\ngini = 0.496\nsamples = 11\nvalue = [6, 5]\nclass = A", fillcolor="#fbeade"] ;
5 -> 6 ;
7 [label="gini = 0.0\nsamples = 5\nvalue = [0, 5]\nclass = t", fillcolor="#399de5"] ;
6 -> 7 ;
8 [label="gini = 0.0\nsamples = 6\nvalue = [6, 0]\nclass = A", fillcolor="#e58139"] ;
6 -> 8 ;
9 [label="hrs <= -1.324\ngini = 0.124\nsamples = 60\nvalue = [56, 4]\nclass = A", fillcolor="#e78a47"] ;
5 -> 9 ;
10 [label="gini = 0.0\nsamples = 1\nvalue = [0, 1]\nclass = t", fillcolor="#399de5"] ;
9 -> 10 ;
11 [label="JobInvolvement <= -0.323\ngini = 0.097\nsamples = 59\nvalue = [56, 3]\nclass = A", fillcolor="#e68844"] ;
9 -> 11 ;
12 [label="JobRole_Sales Executive <= 0.5\ngini = 0.266\nsamples = 19\nvalue = [16, 3]\nclass = A", fillcolor="#ea995e"] ;
11 -> 12 ;
13 [label="hrs <= -0.558\ngini = 0.111\nsamples = 17\nvalue = [16, 1]\nclass = A", fillcolor="#e78945"] ;
12 -> 13 ;
14 [label="gini = 0.444\nsamples = 3\nvalue = [2, 1]\nclass = A", fillcolor="#f2c09c"] ;
13 -> 14 ;
15 [label="gini = 0.0\nsamples = 14\nvalue = [14, 0]\nclass = A", fillcolor="#e58139"] ;
13 -> 15 ;
16 [label="gini = 0.0\nsamples = 2\nvalue = [0, 2]\nclass = t", fillcolor="#399de5"] ;
12 -> 16 ;
17 [label="gini = 0.0\nsamples = 40\nvalue = [40, 0]\nclass = A", fillcolor="#e58139"] ;
11 -> 17 ;
18 [label="gini = 0.0\nsamples = 2\nvalue = [0, 2]\nclass = t", fillcolor="#399de5"] ;
4 -> 18 ;
19 [label="gini = 0.0\nsamples = 3\nvalue = [0, 3]\nclass = t", fillcolor="#399de5"] ;
3 -> 19 ;
20 [label="JobSatisfaction <= -0.209\ngini = 0.444\nsamples = 15\nvalue = [5, 10]\nclass = t", fillcolor="#9ccef2"] ;
2 -> 20 ;
21 [label="gini = 0.0\nsamples = 8\nvalue = [0, 8]\nclass = t", fillcolor="#399de5"] ;
20 -> 21 ;
22 [label="JobLevel <= -0.51\ngini = 0.408\nsamples = 7\nvalue = [5, 2]\nclass = A", fillcolor="#efb388"] ;
20 -> 22 ;
23 [label="gini = 0.0\nsamples = 2\nvalue = [0, 2]\nclass = t", fillcolor="#399de5"] ;
22 -> 23 ;
24 [label="gini = 0.0\nsamples = 5\nvalue = [5, 0]\nclass = A", fillcolor="#e58139"] ;
22 -> 24 ;
25 [label="MonthlyIncome <= 2.301\ngini = 0.422\nsamples = 96\nvalue = [29, 67]\nclass = t", fillcolor="#8fc7f0"] ;
1 -> 25 ;
26 [label="MonthlyIncome <= -0.89\ngini = 0.372\nsamples = 89\nvalue = [22, 67]\nclass = t", fillcolor="#7abdee"] ;
25 -> 26 ;
27 [label="gini = 0.0\nsamples = 5\nvalue = [5, 0]\nclass = A", fillcolor="#e58139"] ;
26 -> 27 ;
28 [label="MonthlyIncome <= 0.857\ngini = 0.323\nsamples = 84\nvalue = [17, 67]\nclass = t", fillcolor="#6bb6ec"] ;
26 -> 28 ;
29 [label="Age <= 0.227\ngini = 0.233\nsamples = 67\nvalue = [9, 58]\nclass = t", fillcolor="#58ace9"] ;
28 -> 29 ;
30 [label="Age <= -2.017\ngini = 0.192\nsamples = 65\nvalue = [7, 58]\nclass = t", fillcolor="#51a9e8"] ;
29 -> 30 ;
31 [label="DistanceFromHome <= -0.641\ngini = 0.486\nsamples = 12\nvalue = [5, 7]\nclass = t", fillcolor="#c6e3f8"] ;
30 -> 31 ;
32 [label="BusinessTravel_Non-Travel <= 0.5\ngini = 0.219\nsamples = 8\nvalue = [1, 7]\nclass = t", fillcolor="#55abe9"] ;
31 -> 32 ;
33 [label="gini = 0.0\nsamples = 7\nvalue = [0, 7]\nclass = t", fillcolor="#399de5"] ;
32 -> 33 ;
34 [label="gini = 0.0\nsamples = 1\nvalue = [1, 0]\nclass = A", fillcolor="#e58139"] ;
32 -> 34 ;
35 [label="gini = 0.0\nsamples = 4\nvalue = [4, 0]\nclass = A", fillcolor="#e58139"] ;
31 -> 35 ;
36 [label="YearsSinceLastPromotion <= -0.524\ngini = 0.073\nsamples = 53\nvalue = [2, 51]\nclass = t", fillcolor="#41a1e6"] ;
30 -> 36 ;
37 [label="gini = 0.0\nsamples = 44\nvalue = [0, 44]\nclass = t", fillcolor="#399de5"] ;
36 -> 37 ;
38 [label="JobRole_Sales Executive <= 0.5\ngini = 0.346\nsamples = 9\nvalue = [2, 7]\nclass = t", fillcolor="#72b9ec"] ;
36 -> 38 ;
39 [label="gini = 0.0\nsamples = 7\nvalue = [0, 7]\nclass = t", fillcolor="#399de5"] ;
38 -> 39 ;
40 [label="gini = 0.0\nsamples = 2\nvalue = [2, 0]\nclass = A", fillcolor="#e58139"] ;
38 -> 40 ;
41 [label="gini = 0.0\nsamples = 2\nvalue = [2, 0]\nclass = A", fillcolor="#e58139"] ;
29 -> 41 ;
42 [label="Department_Sales <= 0.5\ngini = 0.498\nsamples = 17\nvalue = [8, 9]\nclass = t", fillcolor="#e9f4fc"] ;
28 -> 42 ;
43 [label="Gender_Male <= 0.5\ngini = 0.375\nsamples = 12\nvalue = [3, 9]\nclass = t", fillcolor="#7bbeee"] ;
42 -> 43 ;
44 [label="gini = 0.0\nsamples = 3\nvalue = [3, 0]\nclass = A", fillcolor="#e58139"] ;
43 -> 44 ;
45 [label="gini = 0.0\nsamples = 9\nvalue = [0, 9]\nclass = t", fillcolor="#399de5"] ;
43 -> 45 ;
46 [label="gini = 0.0\nsamples = 5\nvalue = [5, 0]\nclass = A", fillcolor="#e58139"] ;
42 -> 46 ;
47 [label="gini = 0.0\nsamples = 7\nvalue = [7, 0]\nclass = A", fillcolor="#e58139"] ;
25 -> 47 ;
48 [label="MaritalStatus_Single <= 0.5\ngini = 0.241\nsamples = 2899\nvalue = [2492, 407]\nclass = A", fillcolor="#e99659"] ;
0 -> 48 [labeldistance=2.5, labelangle=-45, headlabel="False"] ;
49 [label="YearsAtCompany <= -0.573\ngini = 0.192\nsamples = 2009\nvalue = [1793, 216]\nclass = A", fillcolor="#e89051"] ;
48 -> 49 ;
50 [label="DistanceFromHome <= 1.273\ngini = 0.297\nsamples = 557\nvalue = [456, 101]\nclass = A", fillcolor="#eb9d65"] ;
49 -> 50 ;
51 [label="EnvironmentSatisfaction <= -0.207\ngini = 0.34\nsamples = 452\nvalue = [354, 98]\nclass = A", fillcolor="#eca470"] ;
50 -> 51 ;
52 [label="Age <= 0.173\ngini = 0.419\nsamples = 204\nvalue = [143, 61]\nclass = A", fillcolor="#f0b78d"] ;
51 -> 52 ;
53 [label="JobRole_Laboratory Technician <= 0.5\ngini = 0.489\nsamples = 124\nvalue = [71, 53]\nclass = A", fillcolor="#f8dfcd"] ;
52 -> 53 ;
54 [label="TrainingTimesLastYear <= 0.545\ngini = 0.455\nsamples = 100\nvalue = [65, 35]\nclass = A", fillcolor="#f3c5a4"] ;
53 -> 54 ;
55 [label="TotalWorkingYears <= 0.543\ngini = 0.381\nsamples = 78\nvalue = [58, 20]\nclass = A", fillcolor="#eeac7d"] ;
54 -> 55 ;
56 [label="Education <= -1.38\ngini = 0.327\nsamples = 73\nvalue = [58, 15]\nclass = A", fillcolor="#eca26c"] ;
55 -> 56 ;
57 [label="gini = 0.245\nsamples = 7\nvalue = [1, 6]\nclass = t", fillcolor="#5aade9"] ;
56 -> 57 ;
58 [label="gini = 0.236\nsamples = 66\nvalue = [57, 9]\nclass = A", fillcolor="#e99558"] ;
56 -> 58 ;
59 [label="gini = 0.0\nsamples = 5\nvalue = [0, 5]\nclass = t", fillcolor="#399de5"] ;
55 -> 59 ;
60 [label="TrainingTimesLastYear <= 2.097\ngini = 0.434\nsamples = 22\nvalue = [7, 15]\nclass = t", fillcolor="#95cbf1"] ;
54 -> 60 ;
61 [label="TotalWorkingYears <= -1.0\ngini = 0.208\nsamples = 17\nvalue = [2, 15]\nclass = t", fillcolor="#53aae8"] ;
60 -> 61 ;
62 [label="gini = 0.0\nsamples = 2\nvalue = [2, 0]\nclass = A", fillcolor="#e58139"] ;
61 -> 62 ;
63 [label="gini = 0.0\nsamples = 15\nvalue = [0, 15]\nclass = t", fillcolor="#399de5"] ;
61 -> 63 ;
64 [label="gini = 0.0\nsamples = 5\nvalue = [5, 0]\nclass = A", fillcolor="#e58139"] ;
60 -> 64 ;
65 [label="TotalWorkingYears <= -1.0\ngini = 0.375\nsamples = 24\nvalue = [6, 18]\nclass = t", fillcolor="#7bbeee"] ;
53 -> 65 ;
66 [label="gini = 0.0\nsamples = 6\nvalue = [6, 0]\nclass = A", fillcolor="#e58139"] ;
65 -> 66 ;
67 [label="gini = 0.0\nsamples = 18\nvalue = [0, 18]\nclass = t", fillcolor="#399de5"] ;
65 -> 67 ;
68 [label="hrs <= 1.129\ngini = 0.18\nsamples = 80\nvalue = [72, 8]\nclass = A", fillcolor="#e88f4f"] ;
52 -> 68 ;
69 [label="NumCompaniesWorked <= -0.478\ngini = 0.081\nsamples = 71\nvalue = [68, 3]\nclass = A", fillcolor="#e68742"] ;
68 -> 69 ;
70 [label="gini = 0.0\nsamples = 2\nvalue = [0, 2]\nclass = t", fillcolor="#399de5"] ;
69 -> 70 ;
71 [label="MonthlyIncome <= 2.74\ngini = 0.029\nsamples = 69\nvalue = [68, 1]\nclass = A", fillcolor="#e5833c"] ;
69 -> 71 ;
72 [label="gini = 0.0\nsamples = 68\nvalue = [68, 0]\nclass = A", fillcolor="#e58139"] ;
71 -> 72 ;
73 [label="gini = 0.0\nsamples = 1\nvalue = [0, 1]\nclass = t", fillcolor="#399de5"] ;
71 -> 73 ;
74 [label="EducationField_Life Sciences <= 0.5\ngini = 0.494\nsamples = 9\nvalue = [4, 5]\nclass = t", fillcolor="#d7ebfa"] ;
68 -> 74 ;
75 [label="gini = 0.0\nsamples = 4\nvalue = [4, 0]\nclass = A", fillcolor="#e58139"] ;
74 -> 75 ;
76 [label="gini = 0.0\nsamples = 5\nvalue = [0, 5]\nclass = t", fillcolor="#399de5"] ;
74 -> 76 ;
77 [label="DistanceFromHome <= -0.949\ngini = 0.254\nsamples = 248\nvalue = [211, 37]\nclass = A", fillcolor="#ea975c"] ;
51 -> 77 ;
78 [label="StockOptionLevel <= -0.345\ngini = 0.469\nsamples = 32\nvalue = [20, 12]\nclass = A", fillcolor="#f5cdb0"] ;
77 -> 78 ;
79 [label="gini = 0.0\nsamples = 14\nvalue = [14, 0]\nclass = A", fillcolor="#e58139"] ;
78 -> 79 ;
80 [label="TotalWorkingYears <= -0.807\ngini = 0.444\nsamples = 18\nvalue = [6, 12]\nclass = t", fillcolor="#9ccef2"] ;
78 -> 80 ;
81 [label="gini = 0.0\nsamples = 6\nvalue = [6, 0]\nclass = A", fillcolor="#e58139"] ;
80 -> 81 ;
82 [label="gini = 0.0\nsamples = 12\nvalue = [0, 12]\nclass = t", fillcolor="#399de5"] ;
80 -> 82 ;
83 [label="JobRole_Research Director <= 0.5\ngini = 0.205\nsamples = 216\nvalue = [191, 25]\nclass = A", fillcolor="#e89153"] ;
77 -> 83 ;
84 [label="MonthlyIncome <= 1.522\ngini = 0.185\nsamples = 213\nvalue = [191, 22]\nclass = A", fillcolor="#e89050"] ;
83 -> 84 ;
85 [label="JobRole_Human Resources <= 0.5\ngini = 0.127\nsamples = 190\nvalue = [177, 13]\nclass = A", fillcolor="#e78a48"] ;
84 -> 85 ;
86 [label="MonthlyIncome <= -0.915\ngini = 0.11\nsamples = 188\nvalue = [177, 11]\nclass = A", fillcolor="#e78945"] ;
85 -> 86 ;
87 [label="gini = 0.397\nsamples = 22\nvalue = [16, 6]\nclass = A", fillcolor="#efb083"] ;
86 -> 87 ;
88 [label="gini = 0.058\nsamples = 166\nvalue = [161, 5]\nclass = A", fillcolor="#e6853f"] ;
86 -> 88 ;
89 [label="gini = 0.0\nsamples = 2\nvalue = [0, 2]\nclass = t", fillcolor="#399de5"] ;
85 -> 89 ;
90 [label="Age <= 0.008\ngini = 0.476\nsamples = 23\nvalue = [14, 9]\nclass = A", fillcolor="#f6d2b8"] ;
84 -> 90 ;
91 [label="gini = 0.0\nsamples = 6\nvalue = [0, 6]\nclass = t", fillcolor="#399de5"] ;
90 -> 91 ;
92 [label="TrainingTimesLastYear <= -1.008\ngini = 0.291\nsamples = 17\nvalue = [14, 3]\nclass = A", fillcolor="#eb9c63"] ;
90 -> 92 ;
93 [label="gini = 0.0\nsamples = 3\nvalue = [0, 3]\nclass = t", fillcolor="#399de5"] ;
92 -> 93 ;
94 [label="gini = 0.0\nsamples = 14\nvalue = [14, 0]\nclass = A", fillcolor="#e58139"] ;
92 -> 94 ;
95 [label="gini = 0.0\nsamples = 3\nvalue = [0, 3]\nclass = t", fillcolor="#399de5"] ;
83 -> 95 ;
96 [label="hrs <= 2.247\ngini = 0.056\nsamples = 105\nvalue = [102, 3]\nclass = A", fillcolor="#e6853f"] ;
50 -> 96 ;
97 [label="gini = 0.0\nsamples = 102\nvalue = [102, 0]\nclass = A", fillcolor="#e58139"] ;
96 -> 97 ;
98 [label="gini = 0.0\nsamples = 3\nvalue = [0, 3]\nclass = t", fillcolor="#399de5"] ;
96 -> 98 ;
99 [label="MonthlyIncome <= -0.888\ngini = 0.146\nsamples = 1452\nvalue = [1337, 115]\nclass = A", fillcolor="#e78c4a"] ;
49 -> 99 ;
100 [label="NumCompaniesWorked <= 2.329\ngini = 0.331\nsamples = 148\nvalue = [117, 31]\nclass = A", fillcolor="#eca26d"] ;
99 -> 100 ;
101 [label="DistanceFromHome <= 2.137\ngini = 0.29\nsamples = 142\nvalue = [117, 25]\nclass = A", fillcolor="#eb9c63"] ;
100 -> 101 ;
102 [label="MonthlyIncome <= -1.163\ngini = 0.266\nsamples = 139\nvalue = [117, 22]\nclass = A", fillcolor="#ea995e"] ;
101 -> 102 ;
103 [label="gini = 0.0\nsamples = 3\nvalue = [0, 3]\nclass = t", fillcolor="#399de5"] ;
102 -> 103 ;
104 [label="WorkLifeBalance <= -1.796\ngini = 0.24\nsamples = 136\nvalue = [117, 19]\nclass = A", fillcolor="#e99559"] ;
102 -> 104 ;
105 [label="PercentSalaryHike <= -0.467\ngini = 0.48\nsamples = 10\nvalue = [4, 6]\nclass = t", fillcolor="#bddef6"] ;
104 -> 105 ;
106 [label="gini = 0.0\nsamples = 6\nvalue = [0, 6]\nclass = t", fillcolor="#399de5"] ;
105 -> 106 ;
107 [label="gini = 0.0\nsamples = 4\nvalue = [4, 0]\nclass = A", fillcolor="#e58139"] ;
105 -> 107 ;
108 [label="TrainingTimesLastYear <= -0.232\ngini = 0.185\nsamples = 126\nvalue = [113, 13]\nclass = A", fillcolor="#e88f50"] ;
104 -> 108 ;
109 [label="YearsWithCurrManager <= 0.527\ngini = 0.324\nsamples = 54\nvalue = [43, 11]\nclass = A", fillcolor="#eca16c"] ;
108 -> 109 ;
110 [label="gini = 0.0\nsamples = 27\nvalue = [27, 0]\nclass = A", fillcolor="#e58139"] ;
109 -> 110 ;
111 [label="gini = 0.483\nsamples = 27\nvalue = [16, 11]\nclass = A", fillcolor="#f7d8c1"] ;
109 -> 111 ;
112 [label="JobRole_Human Resources <= 0.5\ngini = 0.054\nsamples = 72\nvalue = [70, 2]\nclass = A", fillcolor="#e6853f"] ;
108 -> 112 ;
113 [label="gini = 0.0\nsamples = 65\nvalue = [65, 0]\nclass = A", fillcolor="#e58139"] ;
112 -> 113 ;
114 [label="gini = 0.408\nsamples = 7\nvalue = [5, 2]\nclass = A", fillcolor="#efb388"] ;
112 -> 114 ;
115 [label="gini = 0.0\nsamples = 3\nvalue = [0, 3]\nclass = t", fillcolor="#399de5"] ;
101 -> 115 ;
116 [label="gini = 0.0\nsamples = 6\nvalue = [0, 6]\nclass = t", fillcolor="#399de5"] ;
100 -> 116 ;
117 [label="TotalWorkingYears <= 3.502\ngini = 0.121\nsamples = 1304\nvalue = [1220, 84]\nclass = A", fillcolor="#e78a47"] ;
99 -> 117 ;
118 [label="PercentSalaryHike <= 2.539\ngini = 0.117\nsamples = 1301\nvalue = [1220, 81]\nclass = A", fillcolor="#e78946"] ;
117 -> 118 ;
119 [label="NumCompaniesWorked <= 0.324\ngini = 0.109\nsamples = 1281\nvalue = [1207, 74]\nclass = A", fillcolor="#e78945"] ;
118 -> 119 ;
120 [label="Age <= -1.141\ngini = 0.084\nsamples = 951\nvalue = [909, 42]\nclass = A", fillcolor="#e68742"] ;
119 -> 120 ;
121 [label="Department_Human Resources <= 0.5\ngini = 0.251\nsamples = 68\nvalue = [58, 10]\nclass = A", fillcolor="#e9975b"] ;
120 -> 121 ;
122 [label="YearsWithCurrManager <= -1.016\ngini = 0.146\nsamples = 63\nvalue = [58, 5]\nclass = A", fillcolor="#e78c4a"] ;
121 -> 122 ;
123 [label="gini = 0.0\nsamples = 2\nvalue = [0, 2]\nclass = t", fillcolor="#399de5"] ;
122 -> 123 ;
124 [label="gini = 0.094\nsamples = 61\nvalue = [58, 3]\nclass = A", fillcolor="#e68843"] ;
122 -> 124 ;
125 [label="gini = 0.0\nsamples = 5\nvalue = [0, 5]\nclass = t", fillcolor="#399de5"] ;
121 -> 125 ;
126 [label="YearsSinceLastPromotion <= 1.028\ngini = 0.07\nsamples = 883\nvalue = [851, 32]\nclass = A", fillcolor="#e68640"] ;
120 -> 126 ;
127 [label="JobRole_Sales Representative <= 0.5\ngini = 0.035\nsamples = 683\nvalue = [671, 12]\nclass = A", fillcolor="#e5833d"] ;
126 -> 127 ;
128 [label="gini = 0.024\nsamples = 648\nvalue = [640, 8]\nclass = A", fillcolor="#e5833b"] ;
127 -> 128 ;
129 [label="gini = 0.202\nsamples = 35\nvalue = [31, 4]\nclass = A", fillcolor="#e89153"] ;
127 -> 129 ;
130 [label="DistanceFromHome <= 2.384\ngini = 0.18\nsamples = 200\nvalue = [180, 20]\nclass = A", fillcolor="#e88f4f"] ;
126 -> 130 ;
131 [label="gini = 0.16\nsamples = 194\nvalue = [177, 17]\nclass = A", fillcolor="#e78d4c"] ;
130 -> 131 ;
132 [label="gini = 0.5\nsamples = 6\nvalue = [3, 3]\nclass = A", fillcolor="#ffffff"] ;
130 -> 132 ;
133 [label="PercentSalaryHike <= 0.899\ngini = 0.175\nsamples = 330\nvalue = [298, 32]\nclass = A", fillcolor="#e88f4e"] ;
119 -> 133 ;
134 [label="Age <= -0.922\ngini = 0.114\nsamples = 264\nvalue = [248, 16]\nclass = A", fillcolor="#e78946"] ;
133 -> 134 ;
135 [label="gini = 0.0\nsamples = 2\nvalue = [0, 2]\nclass = t", fillcolor="#399de5"] ;
134 -> 135 ;
136 [label="EducationField_Human Resources <= 0.5\ngini = 0.101\nsamples = 262\nvalue = [248, 14]\nclass = A", fillcolor="#e68844"] ;
134 -> 136 ;
137 [label="gini = 0.095\nsamples = 261\nvalue = [248, 13]\nclass = A", fillcolor="#e68843"] ;
136 -> 137 ;
138 [label="gini = 0.0\nsamples = 1\nvalue = [0, 1]\nclass = t", fillcolor="#399de5"] ;
136 -> 138 ;
139 [label="TotalWorkingYears <= -0.486\ngini = 0.367\nsamples = 66\nvalue = [50, 16]\nclass = A", fillcolor="#eda978"] ;
133 -> 139 ;
140 [label="gini = 0.0\nsamples = 7\nvalue = [0, 7]\nclass = t", fillcolor="#399de5"] ;
139 -> 140 ;
141 [label="WorkLifeBalance <= -1.796\ngini = 0.259\nsamples = 59\nvalue = [50, 9]\nclass = A", fillcolor="#ea985d"] ;
139 -> 141 ;
142 [label="gini = 0.0\nsamples = 4\nvalue = [0, 4]\nclass = t", fillcolor="#399de5"] ;
141 -> 142 ;
143 [label="gini = 0.165\nsamples = 55\nvalue = [50, 5]\nclass = A", fillcolor="#e88e4d"] ;
141 -> 143 ;
144 [label="MonthlyIncome <= -0.747\ngini = 0.455\nsamples = 20\nvalue = [13, 7]\nclass = A", fillcolor="#f3c5a4"] ;
118 -> 144 ;
145 [label="gini = 0.0\nsamples = 5\nvalue = [0, 5]\nclass = t", fillcolor="#399de5"] ;
144 -> 145 ;
146 [label="TrainingTimesLastYear <= 1.321\ngini = 0.231\nsamples = 15\nvalue = [13, 2]\nclass = A", fillcolor="#e99457"] ;
144 -> 146 ;
147 [label="gini = 0.0\nsamples = 13\nvalue = [13, 0]\nclass = A", fillcolor="#e58139"] ;
146 -> 147 ;
148 [label="gini = 0.0\nsamples = 2\nvalue = [0, 2]\nclass = t", fillcolor="#399de5"] ;
146 -> 148 ;
149 [label="gini = 0.0\nsamples = 3\nvalue = [0, 3]\nclass = t", fillcolor="#399de5"] ;
117 -> 149 ;
150 [label="Age <= -0.375\ngini = 0.337\nsamples = 890\nvalue = [699, 191]\nclass = A", fillcolor="#eca36f"] ;
48 -> 150 ;
151 [label="BusinessTravel_Travel_Frequently <= 0.5\ngini = 0.433\nsamples = 359\nvalue = [245, 114]\nclass = A", fillcolor="#f1bc95"] ;
150 -> 151 ;
152 [label="YearsAtCompany <= -0.736\ngini = 0.363\nsamples = 264\nvalue = [201, 63]\nclass = A", fillcolor="#eda877"] ;
151 -> 152 ;
153 [label="Age <= -1.251\ngini = 0.493\nsamples = 59\nvalue = [33, 26]\nclass = A", fillcolor="#f9e4d5"] ;
152 -> 153 ;
154 [label="TrainingTimesLastYear <= 2.097\ngini = 0.219\nsamples = 24\nvalue = [21, 3]\nclass = A", fillcolor="#e99355"] ;
153 -> 154 ;
155 [label="JobRole_Healthcare Representative <= 0.5\ngini = 0.087\nsamples = 22\nvalue = [21, 1]\nclass = A", fillcolor="#e68742"] ;
154 -> 155 ;
156 [label="gini = 0.0\nsamples = 21\nvalue = [21, 0]\nclass = A", fillcolor="#e58139"] ;
155 -> 156 ;
157 [label="gini = 0.0\nsamples = 1\nvalue = [0, 1]\nclass = t", fillcolor="#399de5"] ;
155 -> 157 ;
158 [label="gini = 0.0\nsamples = 2\nvalue = [0, 2]\nclass = t", fillcolor="#399de5"] ;
154 -> 158 ;
159 [label="JobSatisfaction <= 0.701\ngini = 0.451\nsamples = 35\nvalue = [12, 23]\nclass = t", fillcolor="#a0d0f3"] ;
153 -> 159 ;
160 [label="TrainingTimesLastYear <= 1.321\ngini = 0.204\nsamples = 26\nvalue = [3, 23]\nclass = t", fillcolor="#53aae8"] ;
159 -> 160 ;
161 [label="StockOptionLevel <= 2.003\ngini = 0.08\nsamples = 24\nvalue = [1, 23]\nclass = t", fillcolor="#42a1e6"] ;
160 -> 161 ;
162 [label="gini = 0.0\nsamples = 23\nvalue = [0, 23]\nclass = t", fillcolor="#399de5"] ;
161 -> 162 ;
163 [label="gini = 0.0\nsamples = 1\nvalue = [1, 0]\nclass = A", fillcolor="#e58139"] ;
161 -> 163 ;
164 [label="gini = 0.0\nsamples = 2\nvalue = [2, 0]\nclass = A", fillcolor="#e58139"] ;
160 -> 164 ;
165 [label="gini = 0.0\nsamples = 9\nvalue = [9, 0]\nclass = A", fillcolor="#e58139"] ;
159 -> 165 ;
166 [label="TrainingTimesLastYear <= -1.785\ngini = 0.296\nsamples = 205\nvalue = [168, 37]\nclass = A", fillcolor="#eb9d65"] ;
152 -> 166 ;
167 [label="YearsWithCurrManager <= -0.174\ngini = 0.444\nsamples = 9\nvalue = [3, 6]\nclass = t", fillcolor="#9ccef2"] ;
166 -> 167 ;
168 [label="gini = 0.0\nsamples = 3\nvalue = [3, 0]\nclass = A", fillcolor="#e58139"] ;
167 -> 168 ;
169 [label="gini = 0.0\nsamples = 6\nvalue = [0, 6]\nclass = t", fillcolor="#399de5"] ;
167 -> 169 ;
170 [label="YearsSinceLastPromotion <= 1.339\ngini = 0.266\nsamples = 196\nvalue = [165, 31]\nclass = A", fillcolor="#ea995e"] ;
166 -> 170 ;
171 [label="JobSatisfaction <= -1.119\ngini = 0.229\nsamples = 182\nvalue = [158, 24]\nclass = A", fillcolor="#e99457"] ;
170 -> 171 ;
172 [label="EnvironmentSatisfaction <= -1.125\ngini = 0.435\nsamples = 47\nvalue = [32, 15]\nclass = A", fillcolor="#f1bc96"] ;
171 -> 172 ;
173 [label="hrs <= -0.563\ngini = 0.245\nsamples = 7\nvalue = [1, 6]\nclass = t", fillcolor="#5aade9"] ;
172 -> 173 ;
174 [label="gini = 0.0\nsamples = 1\nvalue = [1, 0]\nclass = A", fillcolor="#e58139"] ;
173 -> 174 ;
175 [label="gini = 0.0\nsamples = 6\nvalue = [0, 6]\nclass = t", fillcolor="#399de5"] ;
173 -> 175 ;
176 [label="JobLevel <= -0.51\ngini = 0.349\nsamples = 40\nvalue = [31, 9]\nclass = A", fillcolor="#eda672"] ;
172 -> 176 ;
177 [label="gini = 0.0\nsamples = 23\nvalue = [23, 0]\nclass = A", fillcolor="#e58139"] ;
176 -> 177 ;
178 [label="gini = 0.498\nsamples = 17\nvalue = [8, 9]\nclass = t", fillcolor="#e9f4fc"] ;
176 -> 178 ;
179 [label="Education <= -1.38\ngini = 0.124\nsamples = 135\nvalue = [126, 9]\nclass = A", fillcolor="#e78a47"] ;
171 -> 179 ;
180 [label="StockOptionLevel <= -0.345\ngini = 0.497\nsamples = 13\nvalue = [7, 6]\nclass = A", fillcolor="#fbede3"] ;
179 -> 180 ;
181 [label="gini = 0.245\nsamples = 7\nvalue = [1, 6]\nclass = t", fillcolor="#5aade9"] ;
180 -> 181 ;
182 [label="gini = 0.0\nsamples = 6\nvalue = [6, 0]\nclass = A", fillcolor="#e58139"] ;
180 -> 182 ;
183 [label="JobRole_Sales Executive <= 0.5\ngini = 0.048\nsamples = 122\nvalue = [119, 3]\nclass = A", fillcolor="#e6843e"] ;
179 -> 183 ;
184 [label="gini = 0.018\nsamples = 111\nvalue = [110, 1]\nclass = A", fillcolor="#e5823b"] ;
183 -> 184 ;
185 [label="gini = 0.298\nsamples = 11\nvalue = [9, 2]\nclass = A", fillcolor="#eb9d65"] ;
183 -> 185 ;
186 [label="TrainingTimesLastYear <= 2.097\ngini = 0.5\nsamples = 14\nvalue = [7, 7]\nclass = A", fillcolor="#ffffff"] ;
170 -> 186 ;
187 [label="gini = 0.0\nsamples = 7\nvalue = [0, 7]\nclass = t", fillcolor="#399de5"] ;
186 -> 187 ;
188 [label="gini = 0.0\nsamples = 7\nvalue = [7, 0]\nclass = A", fillcolor="#e58139"] ;
186 -> 188 ;
189 [label="EnvironmentSatisfaction <= 0.711\ngini = 0.497\nsamples = 95\nvalue = [44, 51]\nclass = t", fillcolor="#e4f2fb"] ;
151 -> 189 ;
190 [label="JobSatisfaction <= 0.701\ngini = 0.421\nsamples = 63\nvalue = [19, 44]\nclass = t", fillcolor="#8ec7f0"] ;
189 -> 190 ;
191 [label="hrs <= 1.966\ngini = 0.214\nsamples = 41\nvalue = [5, 36]\nclass = t", fillcolor="#54abe9"] ;
190 -> 191 ;
192 [label="NumCompaniesWorked <= -0.879\ngini = 0.1\nsamples = 38\nvalue = [2, 36]\nclass = t", fillcolor="#44a2e6"] ;
191 -> 192 ;
193 [label="JobSatisfaction <= -1.119\ngini = 0.444\nsamples = 6\nvalue = [2, 4]\nclass = t", fillcolor="#9ccef2"] ;
192 -> 193 ;
194 [label="JobRole_Sales Executive <= 0.5\ngini = 0.444\nsamples = 3\nvalue = [2, 1]\nclass = A", fillcolor="#f2c09c"] ;
193 -> 194 ;
195 [label="gini = 0.0\nsamples = 1\nvalue = [0, 1]\nclass = t", fillcolor="#399de5"] ;
194 -> 195 ;
196 [label="gini = 0.0\nsamples = 2\nvalue = [2, 0]\nclass = A", fillcolor="#e58139"] ;
194 -> 196 ;
197 [label="gini = 0.0\nsamples = 3\nvalue = [0, 3]\nclass = t", fillcolor="#399de5"] ;
193 -> 197 ;
198 [label="gini = 0.0\nsamples = 32\nvalue = [0, 32]\nclass = t", fillcolor="#399de5"] ;
192 -> 198 ;
199 [label="gini = 0.0\nsamples = 3\nvalue = [3, 0]\nclass = A", fillcolor="#e58139"] ;
191 -> 199 ;
200 [label="EnvironmentSatisfaction <= -0.207\ngini = 0.463\nsamples = 22\nvalue = [14, 8]\nclass = A", fillcolor="#f4c9aa"] ;
190 -> 200 ;
201 [label="gini = 0.0\nsamples = 11\nvalue = [11, 0]\nclass = A", fillcolor="#e58139"] ;
200 -> 201 ;
202 [label="PercentSalaryHike <= -0.194\ngini = 0.397\nsamples = 11\nvalue = [3, 8]\nclass = t", fillcolor="#83c2ef"] ;
200 -> 202 ;
203 [label="gini = 0.0\nsamples = 3\nvalue = [3, 0]\nclass = A", fillcolor="#e58139"] ;
202 -> 203 ;
204 [label="gini = 0.0\nsamples = 8\nvalue = [0, 8]\nclass = t", fillcolor="#399de5"] ;
202 -> 204 ;
205 [label="TotalWorkingYears <= -1.0\ngini = 0.342\nsamples = 32\nvalue = [25, 7]\nclass = A", fillcolor="#eca470"] ;
189 -> 205 ;
206 [label="gini = 0.0\nsamples = 4\nvalue = [0, 4]\nclass = t", fillcolor="#399de5"] ;
205 -> 206 ;
207 [label="YearsSinceLastPromotion <= 0.873\ngini = 0.191\nsamples = 28\nvalue = [25, 3]\nclass = A", fillcolor="#e89051"] ;
205 -> 207 ;
208 [label="gini = 0.0\nsamples = 25\nvalue = [25, 0]\nclass = A", fillcolor="#e58139"] ;
207 -> 208 ;
209 [label="gini = 0.0\nsamples = 3\nvalue = [0, 3]\nclass = t", fillcolor="#399de5"] ;
207 -> 209 ;
210 [label="JobSatisfaction <= -1.119\ngini = 0.248\nsamples = 531\nvalue = [454, 77]\nclass = A", fillcolor="#e9965b"] ;
150 -> 210 ;
211 [label="DistanceFromHome <= 0.656\ngini = 0.421\nsamples = 93\nvalue = [65, 28]\nclass = A", fillcolor="#f0b78e"] ;
210 -> 211 ;
212 [label="YearsSinceLastPromotion <= 3.201\ngini = 0.307\nsamples = 74\nvalue = [60, 14]\nclass = A", fillcolor="#eb9e67"] ;
211 -> 212 ;
213 [label="Education <= 1.55\ngini = 0.227\nsamples = 69\nvalue = [60, 9]\nclass = A", fillcolor="#e99457"] ;
212 -> 213 ;
214 [label="JobRole_Manufacturing Director <= 0.5\ngini = 0.165\nsamples = 66\nvalue = [60, 6]\nclass = A", fillcolor="#e88e4d"] ;
213 -> 214 ;
215 [label="JobRole_Research Director <= 0.5\ngini = 0.117\nsamples = 64\nvalue = [60, 4]\nclass = A", fillcolor="#e78946"] ;
214 -> 215 ;
216 [label="JobRole_Sales Representative <= 0.5\ngini = 0.064\nsamples = 60\nvalue = [58, 2]\nclass = A", fillcolor="#e68540"] ;
215 -> 216 ;
217 [label="gini = 0.0\nsamples = 51\nvalue = [51, 0]\nclass = A", fillcolor="#e58139"] ;
216 -> 217 ;
218 [label="gini = 0.346\nsamples = 9\nvalue = [7, 2]\nclass = A", fillcolor="#eca572"] ;
216 -> 218 ;
219 [label="DistanceFromHome <= -0.641\ngini = 0.5\nsamples = 4\nvalue = [2, 2]\nclass = A", fillcolor="#ffffff"] ;
215 -> 219 ;
220 [label="gini = 0.0\nsamples = 2\nvalue = [0, 2]\nclass = t", fillcolor="#399de5"] ;
219 -> 220 ;
221 [label="gini = 0.0\nsamples = 2\nvalue = [2, 0]\nclass = A", fillcolor="#e58139"] ;
219 -> 221 ;
222 [label="gini = 0.0\nsamples = 2\nvalue = [0, 2]\nclass = t", fillcolor="#399de5"] ;
214 -> 222 ;
223 [label="gini = 0.0\nsamples = 3\nvalue = [0, 3]\nclass = t", fillcolor="#399de5"] ;
213 -> 223 ;
224 [label="gini = 0.0\nsamples = 5\nvalue = [0, 5]\nclass = t", fillcolor="#399de5"] ;
212 -> 224 ;
225 [label="YearsWithCurrManager <= -0.174\ngini = 0.388\nsamples = 19\nvalue = [5, 14]\nclass = t", fillcolor="#80c0ee"] ;
211 -> 225 ;
226 [label="gini = 0.0\nsamples = 12\nvalue = [0, 12]\nclass = t", fillcolor="#399de5"] ;
225 -> 226 ;
227 [label="Gender_Male <= 0.5\ngini = 0.408\nsamples = 7\nvalue = [5, 2]\nclass = A", fillcolor="#efb388"] ;
225 -> 227 ;
228 [label="gini = 0.0\nsamples = 5\nvalue = [5, 0]\nclass = A", fillcolor="#e58139"] ;
227 -> 228 ;
229 [label="gini = 0.0\nsamples = 2\nvalue = [0, 2]\nclass = t", fillcolor="#399de5"] ;
227 -> 229 ;
230 [label="Department_Human Resources <= 0.5\ngini = 0.199\nsamples = 438\nvalue = [389, 49]\nclass = A", fillcolor="#e89152"] ;
210 -> 230 ;
231 [label="JobLevel <= -0.51\ngini = 0.175\nsamples = 412\nvalue = [372, 40]\nclass = A", fillcolor="#e88f4e"] ;
230 -> 231 ;
232 [label="JobRole_Human Resources <= 0.5\ngini = 0.297\nsamples = 149\nvalue = [122, 27]\nclass = A", fillcolor="#eb9d65"] ;
231 -> 232 ;
233 [label="EnvironmentSatisfaction <= -1.125\ngini = 0.259\nsamples = 144\nvalue = [122, 22]\nclass = A", fillcolor="#ea985d"] ;
232 -> 233 ;
234 [label="NumCompaniesWorked <= 1.928\ngini = 0.457\nsamples = 34\nvalue = [22, 12]\nclass = A", fillcolor="#f3c6a5"] ;
233 -> 234 ;
235 [label="Education <= -1.38\ngini = 0.337\nsamples = 28\nvalue = [22, 6]\nclass = A", fillcolor="#eca36f"] ;
234 -> 235 ;
236 [label="gini = 0.0\nsamples = 5\nvalue = [0, 5]\nclass = t", fillcolor="#399de5"] ;
235 -> 236 ;
237 [label="gini = 0.083\nsamples = 23\nvalue = [22, 1]\nclass = A", fillcolor="#e68742"] ;
235 -> 237 ;
238 [label="gini = 0.0\nsamples = 6\nvalue = [0, 6]\nclass = t", fillcolor="#399de5"] ;
234 -> 238 ;
239 [label="MonthlyIncome <= -0.931\ngini = 0.165\nsamples = 110\nvalue = [100, 10]\nclass = A", fillcolor="#e88e4d"] ;
233 -> 239 ;
240 [label="gini = 0.0\nsamples = 2\nvalue = [0, 2]\nclass = t", fillcolor="#399de5"] ;
239 -> 240 ;
241 [label="EducationField_Other <= 0.5\ngini = 0.137\nsamples = 108\nvalue = [100, 8]\nclass = A", fillcolor="#e78b49"] ;
239 -> 241 ;
242 [label="gini = 0.108\nsamples = 105\nvalue = [99, 6]\nclass = A", fillcolor="#e78945"] ;
241 -> 242 ;
243 [label="gini = 0.444\nsamples = 3\nvalue = [1, 2]\nclass = t", fillcolor="#9ccef2"] ;
241 -> 243 ;
244 [label="gini = 0.0\nsamples = 5\nvalue = [0, 5]\nclass = t", fillcolor="#399de5"] ;
232 -> 244 ;
245 [label="PercentSalaryHike <= 1.719\ngini = 0.094\nsamples = 263\nvalue = [250, 13]\nclass = A", fillcolor="#e68843"] ;
231 -> 245 ;
246 [label="TotalWorkingYears <= 3.566\ngini = 0.049\nsamples = 237\nvalue = [231, 6]\nclass = A", fillcolor="#e6843e"] ;
245 -> 246 ;
247 [label="NumCompaniesWorked <= 1.928\ngini = 0.041\nsamples = 236\nvalue = [231, 5]\nclass = A", fillcolor="#e6843d"] ;
246 -> 247 ;
248 [label="YearsAtCompany <= -0.899\ngini = 0.018\nsamples = 217\nvalue = [215, 2]\nclass = A", fillcolor="#e5823b"] ;
247 -> 248 ;
249 [label="gini = 0.137\nsamples = 27\nvalue = [25, 2]\nclass = A", fillcolor="#e78b49"] ;
248 -> 249 ;
250 [label="gini = 0.0\nsamples = 190\nvalue = [190, 0]\nclass = A", fillcolor="#e58139"] ;
248 -> 250 ;
251 [label="EducationField_Marketing <= 0.5\ngini = 0.266\nsamples = 19\nvalue = [16, 3]\nclass = A", fillcolor="#ea995e"] ;
247 -> 251 ;
252 [label="gini = 0.111\nsamples = 17\nvalue = [16, 1]\nclass = A", fillcolor="#e78945"] ;
251 -> 252 ;
253 [label="gini = 0.0\nsamples = 2\nvalue = [0, 2]\nclass = t", fillcolor="#399de5"] ;
251 -> 253 ;
254 [label="gini = 0.0\nsamples = 1\nvalue = [0, 1]\nclass = t", fillcolor="#399de5"] ;
246 -> 254 ;
255 [label="YearsSinceLastPromotion <= 0.252\ngini = 0.393\nsamples = 26\nvalue = [19, 7]\nclass = A", fillcolor="#efaf82"] ;
245 -> 255 ;
256 [label="TotalWorkingYears <= -0.807\ngini = 0.188\nsamples = 19\nvalue = [17, 2]\nclass = A", fillcolor="#e89050"] ;
255 -> 256 ;
257 [label="gini = 0.0\nsamples = 2\nvalue = [0, 2]\nclass = t", fillcolor="#399de5"] ;
256 -> 257 ;
258 [label="gini = 0.0\nsamples = 17\nvalue = [17, 0]\nclass = A", fillcolor="#e58139"] ;
256 -> 258 ;
259 [label="WorkLifeBalance <= 1.047\ngini = 0.408\nsamples = 7\nvalue = [2, 5]\nclass = t", fillcolor="#88c4ef"] ;
255 -> 259 ;
260 [label="gini = 0.0\nsamples = 5\nvalue = [0, 5]\nclass = t", fillcolor="#399de5"] ;
259 -> 260 ;
261 [label="gini = 0.0\nsamples = 2\nvalue = [2, 0]\nclass = A", fillcolor="#e58139"] ;
259 -> 261 ;
262 [label="JobLevel <= 1.298\ngini = 0.453\nsamples = 26\nvalue = [17, 9]\nclass = A", fillcolor="#f3c4a2"] ;
230 -> 262 ;
263 [label="NumCompaniesWorked <= -0.478\ngini = 0.255\nsamples = 20\nvalue = [17, 3]\nclass = A", fillcolor="#ea975c"] ;
262 -> 263 ;
264 [label="gini = 0.0\nsamples = 2\nvalue = [0, 2]\nclass = t", fillcolor="#399de5"] ;
263 -> 264 ;
265 [label="YearsWithCurrManager <= 1.368\ngini = 0.105\nsamples = 18\nvalue = [17, 1]\nclass = A", fillcolor="#e78845"] ;
263 -> 265 ;
266 [label="gini = 0.0\nsamples = 17\nvalue = [17, 0]\nclass = A", fillcolor="#e58139"] ;
265 -> 266 ;
267 [label="gini = 0.0\nsamples = 1\nvalue = [0, 1]\nclass = t", fillcolor="#399de5"] ;
265 -> 267 ;
268 [label="gini = 0.0\nsamples = 6\nvalue = [0, 6]\nclass = t", fillcolor="#399de5"] ;
262 -> 268 ;
}