digraph Tree {
node [shape=box, style="filled", color="black"] ;
0 [label="TotalWorkingYears <= -1.129\ngini = 0.271\nsamples = 3086\nvalue = [2588, 498]\nclass = A", fillcolor="#ea995f"] ;
1 [label="MaritalStatus_Single <= 0.5\ngini = 0.488\nsamples = 269\nvalue = [155, 114]\nclass = A", fillcolor="#f8decb"] ;
0 -> 1 [labeldistance=2.5, labelangle=45, headlabel="True"] ;
2 [label="JobLevel <= 1.298\ngini = 0.406\nsamples = 141\nvalue = [101, 40]\nclass = A", fillcolor="#efb387"] ;
1 -> 2 ;
3 [label="Department_Human Resources <= 0.5\ngini = 0.359\nsamples = 128\nvalue = [98, 30]\nclass = A", fillcolor="#eda876"] ;
2 -> 3 ;
4 [label="MonthlyIncome <= -0.459\ngini = 0.324\nsamples = 123\nvalue = [98, 25]\nclass = A", fillcolor="#eca16c"] ;
3 -> 4 ;
5 [label="YearsWithCurrManager <= -1.016\ngini = 0.449\nsamples = 53\nvalue = [35, 18]\nclass = A", fillcolor="#f2c29f"] ;
4 -> 5 ;
6 [label="JobInvolvement <= -0.323\ngini = 0.5\nsamples = 32\nvalue = [16, 16]\nclass = A", fillcolor="#ffffff"] ;
5 -> 6 ;
7 [label="JobRole_Laboratory Technician <= 0.5\ngini = 0.26\nsamples = 13\nvalue = [2, 11]\nclass = t", fillcolor="#5dafea"] ;
6 -> 7 ;
8 [label="gini = 0.0\nsamples = 11\nvalue = [0, 11]\nclass = t", fillcolor="#399de5"] ;
7 -> 8 ;
9 [label="gini = 0.0\nsamples = 2\nvalue = [2, 0]\nclass = A", fillcolor="#e58139"] ;
7 -> 9 ;
10 [label="hrs <= 0.727\ngini = 0.388\nsamples = 19\nvalue = [14, 5]\nclass = A", fillcolor="#eeae80"] ;
6 -> 10 ;
11 [label="gini = 0.0\nsamples = 14\nvalue = [14, 0]\nclass = A", fillcolor="#e58139"] ;
10 -> 11 ;
12 [label="gini = 0.0\nsamples = 5\nvalue = [0, 5]\nclass = t", fillcolor="#399de5"] ;
10 -> 12 ;
13 [label="hrs <= 0.126\ngini = 0.172\nsamples = 21\nvalue = [19, 2]\nclass = A", fillcolor="#e88e4e"] ;
5 -> 13 ;
14 [label="gini = 0.0\nsamples = 15\nvalue = [15, 0]\nclass = A", fillcolor="#e58139"] ;
13 -> 14 ;
15 [label="JobLevel <= 0.394\ngini = 0.444\nsamples = 6\nvalue = [4, 2]\nclass = A", fillcolor="#f2c09c"] ;
13 -> 15 ;
16 [label="gini = 0.0\nsamples = 2\nvalue = [0, 2]\nclass = t", fillcolor="#399de5"] ;
15 -> 16 ;
17 [label="gini = 0.0\nsamples = 4\nvalue = [4, 0]\nclass = A", fillcolor="#e58139"] ;
15 -> 17 ;
18 [label="JobRole_Research Director <= 0.5\ngini = 0.18\nsamples = 70\nvalue = [63, 7]\nclass = A", fillcolor="#e88f4f"] ;
4 -> 18 ;
19 [label="WorkLifeBalance <= 1.047\ngini = 0.112\nsamples = 67\nvalue = [63, 4]\nclass = A", fillcolor="#e78946"] ;
18 -> 19 ;
20 [label="hrs <= 2.054\ngini = 0.087\nsamples = 66\nvalue = [63, 3]\nclass = A", fillcolor="#e68742"] ;
19 -> 20 ;
21 [label="Age <= -1.47\ngini = 0.06\nsamples = 65\nvalue = [63, 2]\nclass = A", fillcolor="#e6853f"] ;
20 -> 21 ;
22 [label="StockOptionLevel <= -0.345\ngini = 0.444\nsamples = 6\nvalue = [4, 2]\nclass = A", fillcolor="#f2c09c"] ;
21 -> 22 ;
23 [label="gini = 0.0\nsamples = 2\nvalue = [0, 2]\nclass = t", fillcolor="#399de5"] ;
22 -> 23 ;
24 [label="gini = 0.0\nsamples = 4\nvalue = [4, 0]\nclass = A", fillcolor="#e58139"] ;
22 -> 24 ;
25 [label="gini = 0.0\nsamples = 59\nvalue = [59, 0]\nclass = A", fillcolor="#e58139"] ;
21 -> 25 ;
26 [label="gini = 0.0\nsamples = 1\nvalue = [0, 1]\nclass = t", fillcolor="#399de5"] ;
20 -> 26 ;
27 [label="gini = 0.0\nsamples = 1\nvalue = [0, 1]\nclass = t", fillcolor="#399de5"] ;
19 -> 27 ;
28 [label="gini = 0.0\nsamples = 3\nvalue = [0, 3]\nclass = t", fillcolor="#399de5"] ;
18 -> 28 ;
29 [label="gini = 0.0\nsamples = 5\nvalue = [0, 5]\nclass = t", fillcolor="#399de5"] ;
3 -> 29 ;
30 [label="hrs <= 0.081\ngini = 0.355\nsamples = 13\nvalue = [3, 10]\nclass = t", fillcolor="#74baed"] ;
2 -> 30 ;
31 [label="gini = 0.0\nsamples = 10\nvalue = [0, 10]\nclass = t", fillcolor="#399de5"] ;
30 -> 31 ;
32 [label="gini = 0.0\nsamples = 3\nvalue = [3, 0]\nclass = A", fillcolor="#e58139"] ;
30 -> 32 ;
33 [label="BusinessTravel_Travel_Frequently <= 0.5\ngini = 0.488\nsamples = 128\nvalue = [54, 74]\nclass = t", fillcolor="#c9e5f8"] ;
1 -> 33 ;
34 [label="Education <= 0.573\ngini = 0.5\nsamples = 109\nvalue = [54, 55]\nclass = t", fillcolor="#fbfdff"] ;
33 -> 34 ;
35 [label="MonthlyIncome <= -0.907\ngini = 0.461\nsamples = 72\nvalue = [26, 46]\nclass = t", fillcolor="#a9d4f4"] ;
34 -> 35 ;
36 [label="gini = 0.0\nsamples = 7\nvalue = [7, 0]\nclass = A", fillcolor="#e58139"] ;
35 -> 36 ;
37 [label="MonthlyIncome <= 2.166\ngini = 0.414\nsamples = 65\nvalue = [19, 46]\nclass = t", fillcolor="#8bc5f0"] ;
35 -> 37 ;
38 [label="TrainingTimesLastYear <= -1.396\ngini = 0.358\nsamples = 60\nvalue = [14, 46]\nclass = t", fillcolor="#75bbed"] ;
37 -> 38 ;
39 [label="gini = 0.0\nsamples = 3\nvalue = [3, 0]\nclass = A", fillcolor="#e58139"] ;
38 -> 39 ;
40 [label="JobRole_Manufacturing Director <= 0.5\ngini = 0.311\nsamples = 57\nvalue = [11, 46]\nclass = t", fillcolor="#68b4eb"] ;
38 -> 40 ;
41 [label="JobRole_Research Director <= 0.5\ngini = 0.233\nsamples = 52\nvalue = [7, 45]\nclass = t", fillcolor="#58ace9"] ;
40 -> 41 ;
42 [label="JobRole_Sales Representative <= 0.5\ngini = 0.18\nsamples = 50\nvalue = [5, 45]\nclass = t", fillcolor="#4fa8e8"] ;
41 -> 42 ;
43 [label="gini = 0.12\nsamples = 47\nvalue = [3, 44]\nclass = t", fillcolor="#46a4e7"] ;
42 -> 43 ;
44 [label="gini = 0.444\nsamples = 3\nvalue = [2, 1]\nclass = A", fillcolor="#f2c09c"] ;
42 -> 44 ;
45 [label="gini = 0.0\nsamples = 2\nvalue = [2, 0]\nclass = A", fillcolor="#e58139"] ;
41 -> 45 ;
46 [label="MonthlyIncome <= 0.337\ngini = 0.32\nsamples = 5\nvalue = [4, 1]\nclass = A", fillcolor="#eca06a"] ;
40 -> 46 ;
47 [label="gini = 0.0\nsamples = 1\nvalue = [0, 1]\nclass = t", fillcolor="#399de5"] ;
46 -> 47 ;
48 [label="gini = 0.0\nsamples = 4\nvalue = [4, 0]\nclass = A", fillcolor="#e58139"] ;
46 -> 48 ;
49 [label="gini = 0.0\nsamples = 5\nvalue = [5, 0]\nclass = A", fillcolor="#e58139"] ;
37 -> 49 ;
50 [label="hrs <= 2.111\ngini = 0.368\nsamples = 37\nvalue = [28, 9]\nclass = A", fillcolor="#edaa79"] ;
34 -> 50 ;
51 [label="Age <= -2.017\ngini = 0.219\nsamples = 32\nvalue = [28, 4]\nclass = A", fillcolor="#e99355"] ;
50 -> 51 ;
52 [label="hrs <= -0.137\ngini = 0.48\nsamples = 10\nvalue = [6, 4]\nclass = A", fillcolor="#f6d5bd"] ;
51 -> 52 ;
53 [label="gini = 0.0\nsamples = 6\nvalue = [6, 0]\nclass = A", fillcolor="#e58139"] ;
52 -> 53 ;
54 [label="gini = 0.0\nsamples = 4\nvalue = [0, 4]\nclass = t", fillcolor="#399de5"] ;
52 -> 54 ;
55 [label="gini = 0.0\nsamples = 22\nvalue = [22, 0]\nclass = A", fillcolor="#e58139"] ;
51 -> 55 ;
56 [label="gini = 0.0\nsamples = 5\nvalue = [0, 5]\nclass = t", fillcolor="#399de5"] ;
50 -> 56 ;
57 [label="gini = 0.0\nsamples = 19\nvalue = [0, 19]\nclass = t", fillcolor="#399de5"] ;
33 -> 57 ;
58 [label="MaritalStatus_Single <= 0.5\ngini = 0.235\nsamples = 2817\nvalue = [2433, 384]\nclass = A", fillcolor="#e99558"] ;
0 -> 58 [labeldistance=2.5, labelangle=-45, headlabel="False"] ;
59 [label="NumCompaniesWorked <= 0.725\ngini = 0.187\nsamples = 1977\nvalue = [1770, 207]\nclass = A", fillcolor="#e89050"] ;
58 -> 59 ;
60 [label="EducationField_Human Resources <= 0.5\ngini = 0.15\nsamples = 1544\nvalue = [1418, 126]\nclass = A", fillcolor="#e78c4b"] ;
59 -> 60 ;
61 [label="YearsWithCurrManager <= -0.735\ngini = 0.139\nsamples = 1513\nvalue = [1399, 114]\nclass = A", fillcolor="#e78b49"] ;
60 -> 61 ;
62 [label="hrs <= -0.048\ngini = 0.245\nsamples = 231\nvalue = [198, 33]\nclass = A", fillcolor="#e9965a"] ;
61 -> 62 ;
63 [label="DistanceFromHome <= 2.137\ngini = 0.114\nsamples = 148\nvalue = [139, 9]\nclass = A", fillcolor="#e78946"] ;
62 -> 63 ;
64 [label="hrs <= -0.517\ngini = 0.082\nsamples = 140\nvalue = [134, 6]\nclass = A", fillcolor="#e68742"] ;
63 -> 64 ;
65 [label="gini = 0.0\nsamples = 92\nvalue = [92, 0]\nclass = A", fillcolor="#e58139"] ;
64 -> 65 ;
66 [label="Education <= -1.38\ngini = 0.219\nsamples = 48\nvalue = [42, 6]\nclass = A", fillcolor="#e99355"] ;
64 -> 66 ;
67 [label="StockOptionLevel <= 0.829\ngini = 0.444\nsamples = 3\nvalue = [1, 2]\nclass = t", fillcolor="#9ccef2"] ;
66 -> 67 ;
68 [label="gini = 0.0\nsamples = 2\nvalue = [0, 2]\nclass = t", fillcolor="#399de5"] ;
67 -> 68 ;
69 [label="gini = 0.0\nsamples = 1\nvalue = [1, 0]\nclass = A", fillcolor="#e58139"] ;
67 -> 69 ;
70 [label="hrs <= -0.514\ngini = 0.162\nsamples = 45\nvalue = [41, 4]\nclass = A", fillcolor="#e88d4c"] ;
66 -> 70 ;
71 [label="gini = 0.0\nsamples = 1\nvalue = [0, 1]\nclass = t", fillcolor="#399de5"] ;
70 -> 71 ;
72 [label="gini = 0.127\nsamples = 44\nvalue = [41, 3]\nclass = A", fillcolor="#e78a47"] ;
70 -> 72 ;
73 [label="hrs <= -0.447\ngini = 0.469\nsamples = 8\nvalue = [5, 3]\nclass = A", fillcolor="#f5cdb0"] ;
63 -> 73 ;
74 [label="gini = 0.0\nsamples = 3\nvalue = [0, 3]\nclass = t", fillcolor="#399de5"] ;
73 -> 74 ;
75 [label="gini = 0.0\nsamples = 5\nvalue = [5, 0]\nclass = A", fillcolor="#e58139"] ;
73 -> 75 ;
76 [label="DistanceFromHome <= 1.15\ngini = 0.411\nsamples = 83\nvalue = [59, 24]\nclass = A", fillcolor="#f0b48a"] ;
62 -> 76 ;
77 [label="Age <= -0.156\ngini = 0.349\nsamples = 71\nvalue = [55, 16]\nclass = A", fillcolor="#eda673"] ;
76 -> 77 ;
78 [label="DistanceFromHome <= -0.455\ngini = 0.497\nsamples = 26\nvalue = [14, 12]\nclass = A", fillcolor="#fbede3"] ;
77 -> 78 ;
79 [label="JobSatisfaction <= -0.209\ngini = 0.375\nsamples = 16\nvalue = [4, 12]\nclass = t", fillcolor="#7bbeee"] ;
78 -> 79 ;
80 [label="gini = 0.32\nsamples = 5\nvalue = [4, 1]\nclass = A", fillcolor="#eca06a"] ;
79 -> 80 ;
81 [label="gini = 0.0\nsamples = 11\nvalue = [0, 11]\nclass = t", fillcolor="#399de5"] ;
79 -> 81 ;
82 [label="gini = 0.0\nsamples = 10\nvalue = [10, 0]\nclass = A", fillcolor="#e58139"] ;
78 -> 82 ;
83 [label="Department_Human Resources <= 0.5\ngini = 0.162\nsamples = 45\nvalue = [41, 4]\nclass = A", fillcolor="#e88d4c"] ;
77 -> 83 ;
84 [label="hrs <= 0.038\ngini = 0.091\nsamples = 42\nvalue = [40, 2]\nclass = A", fillcolor="#e68743"] ;
83 -> 84 ;
85 [label="gini = 0.0\nsamples = 1\nvalue = [0, 1]\nclass = t", fillcolor="#399de5"] ;
84 -> 85 ;
86 [label="gini = 0.048\nsamples = 41\nvalue = [40, 1]\nclass = A", fillcolor="#e6843e"] ;
84 -> 86 ;
87 [label="hrs <= 1.634\ngini = 0.444\nsamples = 3\nvalue = [1, 2]\nclass = t", fillcolor="#9ccef2"] ;
83 -> 87 ;
88 [label="gini = 0.0\nsamples = 2\nvalue = [0, 2]\nclass = t", fillcolor="#399de5"] ;
87 -> 88 ;
89 [label="gini = 0.0\nsamples = 1\nvalue = [1, 0]\nclass = A", fillcolor="#e58139"] ;
87 -> 89 ;
90 [label="NumCompaniesWorked <= -0.478\ngini = 0.444\nsamples = 12\nvalue = [4, 8]\nclass = t", fillcolor="#9ccef2"] ;
76 -> 90 ;
91 [label="gini = 0.0\nsamples = 3\nvalue = [3, 0]\nclass = A", fillcolor="#e58139"] ;
90 -> 91 ;
92 [label="Department_Sales <= 0.5\ngini = 0.198\nsamples = 9\nvalue = [1, 8]\nclass = t", fillcolor="#52a9e8"] ;
90 -> 92 ;
93 [label="gini = 0.0\nsamples = 8\nvalue = [0, 8]\nclass = t", fillcolor="#399de5"] ;
92 -> 93 ;
94 [label="gini = 0.0\nsamples = 1\nvalue = [1, 0]\nclass = A", fillcolor="#e58139"] ;
92 -> 94 ;
95 [label="MonthlyIncome <= -0.891\ngini = 0.118\nsamples = 1282\nvalue = [1201, 81]\nclass = A", fillcolor="#e78946"] ;
61 -> 95 ;
96 [label="Age <= -0.758\ngini = 0.248\nsamples = 131\nvalue = [112, 19]\nclass = A", fillcolor="#e9965b"] ;
95 -> 96 ;
97 [label="MonthlyIncome <= -0.906\ngini = 0.483\nsamples = 27\nvalue = [16, 11]\nclass = A", fillcolor="#f7d8c1"] ;
96 -> 97 ;
98 [label="YearsWithCurrManager <= 1.228\ngini = 0.32\nsamples = 20\nvalue = [16, 4]\nclass = A", fillcolor="#eca06a"] ;
97 -> 98 ;
99 [label="EducationField_Other <= 0.5\ngini = 0.111\nsamples = 17\nvalue = [16, 1]\nclass = A", fillcolor="#e78945"] ;
98 -> 99 ;
100 [label="gini = 0.0\nsamples = 14\nvalue = [14, 0]\nclass = A", fillcolor="#e58139"] ;
99 -> 100 ;
101 [label="gini = 0.444\nsamples = 3\nvalue = [2, 1]\nclass = A", fillcolor="#f2c09c"] ;
99 -> 101 ;
102 [label="gini = 0.0\nsamples = 3\nvalue = [0, 3]\nclass = t", fillcolor="#399de5"] ;
98 -> 102 ;
103 [label="gini = 0.0\nsamples = 7\nvalue = [0, 7]\nclass = t", fillcolor="#399de5"] ;
97 -> 103 ;
104 [label="YearsAtCompany <= 3.511\ngini = 0.142\nsamples = 104\nvalue = [96, 8]\nclass = A", fillcolor="#e78c49"] ;
96 -> 104 ;
105 [label="JobLevel <= 0.394\ngini = 0.111\nsamples = 102\nvalue = [96, 6]\nclass = A", fillcolor="#e78945"] ;
104 -> 105 ;
106 [label="gini = 0.0\nsamples = 66\nvalue = [66, 0]\nclass = A", fillcolor="#e58139"] ;
105 -> 106 ;
107 [label="DistanceFromHome <= 1.767\ngini = 0.278\nsamples = 36\nvalue = [30, 6]\nclass = A", fillcolor="#ea9a61"] ;
105 -> 107 ;
108 [label="gini = 0.208\nsamples = 34\nvalue = [30, 4]\nclass = A", fillcolor="#e89253"] ;
107 -> 108 ;
109 [label="gini = 0.0\nsamples = 2\nvalue = [0, 2]\nclass = t", fillcolor="#399de5"] ;
107 -> 109 ;
110 [label="gini = 0.0\nsamples = 2\nvalue = [0, 2]\nclass = t", fillcolor="#399de5"] ;
104 -> 110 ;
111 [label="Age <= -1.47\ngini = 0.102\nsamples = 1151\nvalue = [1089, 62]\nclass = A", fillcolor="#e68844"] ;
95 -> 111 ;
112 [label="JobRole_Research Scientist <= 0.5\ngini = 0.401\nsamples = 18\nvalue = [13, 5]\nclass = A", fillcolor="#efb185"] ;
111 -> 112 ;
113 [label="hrs <= 1.722\ngini = 0.231\nsamples = 15\nvalue = [13, 2]\nclass = A", fillcolor="#e99457"] ;
112 -> 113 ;
114 [label="gini = 0.0\nsamples = 13\nvalue = [13, 0]\nclass = A", fillcolor="#e58139"] ;
113 -> 114 ;
115 [label="gini = 0.0\nsamples = 2\nvalue = [0, 2]\nclass = t", fillcolor="#399de5"] ;
113 -> 115 ;
116 [label="gini = 0.0\nsamples = 3\nvalue = [0, 3]\nclass = t", fillcolor="#399de5"] ;
112 -> 116 ;
117 [label="TotalWorkingYears <= 3.502\ngini = 0.096\nsamples = 1133\nvalue = [1076, 57]\nclass = A", fillcolor="#e68843"] ;
111 -> 117 ;
118 [label="Education <= -1.38\ngini = 0.094\nsamples = 1132\nvalue = [1076, 56]\nclass = A", fillcolor="#e68843"] ;
117 -> 118 ;
119 [label="hrs <= 2.158\ngini = 0.203\nsamples = 157\nvalue = [139, 18]\nclass = A", fillcolor="#e89153"] ;
118 -> 119 ;
120 [label="gini = 0.167\nsamples = 152\nvalue = [138, 14]\nclass = A", fillcolor="#e88e4d"] ;
119 -> 120 ;
121 [label="gini = 0.32\nsamples = 5\nvalue = [1, 4]\nclass = t", fillcolor="#6ab6ec"] ;
119 -> 121 ;
122 [label="MonthlyIncome <= 2.825\ngini = 0.075\nsamples = 975\nvalue = [937, 38]\nclass = A", fillcolor="#e68641"] ;
118 -> 122 ;
123 [label="gini = 0.071\nsamples = 972\nvalue = [936, 36]\nclass = A", fillcolor="#e68641"] ;
122 -> 123 ;
124 [label="gini = 0.444\nsamples = 3\nvalue = [1, 2]\nclass = t", fillcolor="#9ccef2"] ;
122 -> 124 ;
125 [label="gini = 0.0\nsamples = 1\nvalue = [0, 1]\nclass = t", fillcolor="#399de5"] ;
117 -> 125 ;
126 [label="Age <= -1.141\ngini = 0.475\nsamples = 31\nvalue = [19, 12]\nclass = A", fillcolor="#f5d1b6"] ;
60 -> 126 ;
127 [label="gini = 0.0\nsamples = 6\nvalue = [0, 6]\nclass = t", fillcolor="#399de5"] ;
126 -> 127 ;
128 [label="YearsAtCompany <= -0.573\ngini = 0.365\nsamples = 25\nvalue = [19, 6]\nclass = A", fillcolor="#eda978"] ;
126 -> 128 ;
129 [label="DistanceFromHome <= 0.285\ngini = 0.444\nsamples = 9\nvalue = [3, 6]\nclass = t", fillcolor="#9ccef2"] ;
128 -> 129 ;
130 [label="gini = 0.0\nsamples = 6\nvalue = [0, 6]\nclass = t", fillcolor="#399de5"] ;
129 -> 130 ;
131 [label="gini = 0.0\nsamples = 3\nvalue = [3, 0]\nclass = A", fillcolor="#e58139"] ;
129 -> 131 ;
132 [label="gini = 0.0\nsamples = 16\nvalue = [16, 0]\nclass = A", fillcolor="#e58139"] ;
128 -> 132 ;
133 [label="TotalWorkingYears <= -0.615\ngini = 0.304\nsamples = 433\nvalue = [352, 81]\nclass = A", fillcolor="#eb9e67"] ;
59 -> 133 ;
134 [label="PercentSalaryHike <= 0.353\ngini = 0.47\nsamples = 77\nvalue = [48, 29]\nclass = A", fillcolor="#f5cdb1"] ;
133 -> 134 ;
135 [label="TrainingTimesLastYear <= 1.321\ngini = 0.496\nsamples = 44\nvalue = [20, 24]\nclass = t", fillcolor="#deeffb"] ;
134 -> 135 ;
136 [label="DistanceFromHome <= 1.52\ngini = 0.431\nsamples = 35\nvalue = [11, 24]\nclass = t", fillcolor="#94caf1"] ;
135 -> 136 ;
137 [label="YearsSinceLastPromotion <= -0.213\ngini = 0.35\nsamples = 31\nvalue = [7, 24]\nclass = t", fillcolor="#73baed"] ;
136 -> 137 ;
138 [label="JobInvolvement <= -1.729\ngini = 0.153\nsamples = 24\nvalue = [2, 22]\nclass = t", fillcolor="#4ba6e7"] ;
137 -> 138 ;
139 [label="gini = 0.0\nsamples = 1\nvalue = [1, 0]\nclass = A", fillcolor="#e58139"] ;
138 -> 139 ;
140 [label="hrs <= 0.519\ngini = 0.083\nsamples = 23\nvalue = [1, 22]\nclass = t", fillcolor="#42a1e6"] ;
138 -> 140 ;
141 [label="gini = 0.0\nsamples = 20\nvalue = [0, 20]\nclass = t", fillcolor="#399de5"] ;
140 -> 141 ;
142 [label="gini = 0.444\nsamples = 3\nvalue = [1, 2]\nclass = t", fillcolor="#9ccef2"] ;
140 -> 142 ;
143 [label="hrs <= -1.028\ngini = 0.408\nsamples = 7\nvalue = [5, 2]\nclass = A", fillcolor="#efb388"] ;
137 -> 143 ;
144 [label="gini = 0.0\nsamples = 2\nvalue = [0, 2]\nclass = t", fillcolor="#399de5"] ;
143 -> 144 ;
145 [label="gini = 0.0\nsamples = 5\nvalue = [5, 0]\nclass = A", fillcolor="#e58139"] ;
143 -> 145 ;
146 [label="gini = 0.0\nsamples = 4\nvalue = [4, 0]\nclass = A", fillcolor="#e58139"] ;
136 -> 146 ;
147 [label="gini = 0.0\nsamples = 9\nvalue = [9, 0]\nclass = A", fillcolor="#e58139"] ;
135 -> 147 ;
148 [label="TrainingTimesLastYear <= 0.545\ngini = 0.257\nsamples = 33\nvalue = [28, 5]\nclass = A", fillcolor="#ea985c"] ;
134 -> 148 ;
149 [label="gini = 0.0\nsamples = 26\nvalue = [26, 0]\nclass = A", fillcolor="#e58139"] ;
148 -> 149 ;
150 [label="YearsAtCompany <= -0.899\ngini = 0.408\nsamples = 7\nvalue = [2, 5]\nclass = t", fillcolor="#88c4ef"] ;
148 -> 150 ;
151 [label="gini = 0.0\nsamples = 2\nvalue = [2, 0]\nclass = A", fillcolor="#e58139"] ;
150 -> 151 ;
152 [label="gini = 0.0\nsamples = 5\nvalue = [0, 5]\nclass = t", fillcolor="#399de5"] ;
150 -> 152 ;
153 [label="WorkLifeBalance <= -1.796\ngini = 0.249\nsamples = 356\nvalue = [304, 52]\nclass = A", fillcolor="#e9975b"] ;
133 -> 153 ;
154 [label="Education <= -0.403\ngini = 0.498\nsamples = 30\nvalue = [16, 14]\nclass = A", fillcolor="#fcefe6"] ;
153 -> 154 ;
155 [label="gini = 0.0\nsamples = 12\nvalue = [12, 0]\nclass = A", fillcolor="#e58139"] ;
154 -> 155 ;
156 [label="MonthlyIncome <= -0.781\ngini = 0.346\nsamples = 18\nvalue = [4, 14]\nclass = t", fillcolor="#72b9ec"] ;
154 -> 156 ;
157 [label="gini = 0.0\nsamples = 3\nvalue = [3, 0]\nclass = A", fillcolor="#e58139"] ;
156 -> 157 ;
158 [label="NumCompaniesWorked <= 2.329\ngini = 0.124\nsamples = 15\nvalue = [1, 14]\nclass = t", fillcolor="#47a4e7"] ;
156 -> 158 ;
159 [label="gini = 0.0\nsamples = 14\nvalue = [0, 14]\nclass = t", fillcolor="#399de5"] ;
158 -> 159 ;
160 [label="gini = 0.0\nsamples = 1\nvalue = [1, 0]\nclass = A", fillcolor="#e58139"] ;
158 -> 160 ;
161 [label="PercentSalaryHike <= 2.539\ngini = 0.206\nsamples = 326\nvalue = [288, 38]\nclass = A", fillcolor="#e89253"] ;
153 -> 161 ;
162 [label="EducationField_Human Resources <= 0.5\ngini = 0.185\nsamples = 319\nvalue = [286, 33]\nclass = A", fillcolor="#e89050"] ;
161 -> 162 ;
163 [label="EnvironmentSatisfaction <= -0.207\ngini = 0.176\nsamples = 317\nvalue = [286, 31]\nclass = A", fillcolor="#e88f4e"] ;
162 -> 163 ;
164 [label="Department_Sales <= 0.5\ngini = 0.308\nsamples = 126\nvalue = [102, 24]\nclass = A", fillcolor="#eb9f68"] ;
163 -> 164 ;
165 [label="StockOptionLevel <= -0.345\ngini = 0.201\nsamples = 97\nvalue = [86, 11]\nclass = A", fillcolor="#e89152"] ;
164 -> 165 ;
166 [label="gini = 0.369\nsamples = 45\nvalue = [34, 11]\nclass = A", fillcolor="#edaa79"] ;
165 -> 166 ;
167 [label="gini = 0.0\nsamples = 52\nvalue = [52, 0]\nclass = A", fillcolor="#e58139"] ;
165 -> 167 ;
168 [label="MonthlyIncome <= -0.675\ngini = 0.495\nsamples = 29\nvalue = [16, 13]\nclass = A", fillcolor="#fae7da"] ;
164 -> 168 ;
169 [label="gini = 0.142\nsamples = 13\nvalue = [12, 1]\nclass = A", fillcolor="#e78c49"] ;
168 -> 169 ;
170 [label="gini = 0.375\nsamples = 16\nvalue = [4, 12]\nclass = t", fillcolor="#7bbeee"] ;
168 -> 170 ;
171 [label="MonthlyIncome <= -1.094\ngini = 0.071\nsamples = 191\nvalue = [184, 7]\nclass = A", fillcolor="#e68641"] ;
163 -> 171 ;
172 [label="gini = 0.0\nsamples = 2\nvalue = [0, 2]\nclass = t", fillcolor="#399de5"] ;
171 -> 172 ;
173 [label="TotalWorkingYears <= -0.486\ngini = 0.052\nsamples = 189\nvalue = [184, 5]\nclass = A", fillcolor="#e6843e"] ;
171 -> 173 ;
174 [label="gini = 0.255\nsamples = 20\nvalue = [17, 3]\nclass = A", fillcolor="#ea975c"] ;
173 -> 174 ;
175 [label="gini = 0.023\nsamples = 169\nvalue = [167, 2]\nclass = A", fillcolor="#e5833b"] ;
173 -> 175 ;
176 [label="gini = 0.0\nsamples = 2\nvalue = [0, 2]\nclass = t", fillcolor="#399de5"] ;
162 -> 176 ;
177 [label="JobRole_Manager <= 0.5\ngini = 0.408\nsamples = 7\nvalue = [2, 5]\nclass = t", fillcolor="#88c4ef"] ;
161 -> 177 ;
178 [label="gini = 0.0\nsamples = 5\nvalue = [0, 5]\nclass = t", fillcolor="#399de5"] ;
177 -> 178 ;
179 [label="gini = 0.0\nsamples = 2\nvalue = [2, 0]\nclass = A", fillcolor="#e58139"] ;
177 -> 179 ;
180 [label="Age <= -0.375\ngini = 0.333\nsamples = 840\nvalue = [663, 177]\nclass = A", fillcolor="#eca36e"] ;
58 -> 180 ;
181 [label="YearsAtCompany <= -0.736\ngini = 0.436\nsamples = 317\nvalue = [215, 102]\nclass = A", fillcolor="#f1bd97"] ;
180 -> 181 ;
182 [label="JobSatisfaction <= 0.701\ngini = 0.43\nsamples = 48\nvalue = [15, 33]\nclass = t", fillcolor="#93caf1"] ;
181 -> 182 ;
183 [label="StockOptionLevel <= 2.003\ngini = 0.17\nsamples = 32\nvalue = [3, 29]\nclass = t", fillcolor="#4da7e8"] ;
182 -> 183 ;
184 [label="PercentSalaryHike <= 1.856\ngini = 0.064\nsamples = 30\nvalue = [1, 29]\nclass = t", fillcolor="#40a0e6"] ;
183 -> 184 ;
185 [label="gini = 0.0\nsamples = 29\nvalue = [0, 29]\nclass = t", fillcolor="#399de5"] ;
184 -> 185 ;
186 [label="gini = 0.0\nsamples = 1\nvalue = [1, 0]\nclass = A", fillcolor="#e58139"] ;
184 -> 186 ;
187 [label="gini = 0.0\nsamples = 2\nvalue = [2, 0]\nclass = A", fillcolor="#e58139"] ;
183 -> 187 ;
188 [label="PercentSalaryHike <= 0.762\ngini = 0.375\nsamples = 16\nvalue = [12, 4]\nclass = A", fillcolor="#eeab7b"] ;
182 -> 188 ;
189 [label="DistanceFromHome <= -0.826\ngini = 0.142\nsamples = 13\nvalue = [12, 1]\nclass = A", fillcolor="#e78c49"] ;
188 -> 189 ;
190 [label="gini = 0.0\nsamples = 1\nvalue = [0, 1]\nclass = t", fillcolor="#399de5"] ;
189 -> 190 ;
191 [label="gini = 0.0\nsamples = 12\nvalue = [12, 0]\nclass = A", fillcolor="#e58139"] ;
189 -> 191 ;
192 [label="gini = 0.0\nsamples = 3\nvalue = [0, 3]\nclass = t", fillcolor="#399de5"] ;
188 -> 192 ;
193 [label="JobSatisfaction <= 0.701\ngini = 0.381\nsamples = 269\nvalue = [200, 69]\nclass = A", fillcolor="#eeac7d"] ;
181 -> 193 ;
194 [label="EnvironmentSatisfaction <= -1.125\ngini = 0.448\nsamples = 183\nvalue = [121, 62]\nclass = A", fillcolor="#f2c29e"] ;
193 -> 194 ;
195 [label="EducationField_Life Sciences <= 0.5\ngini = 0.438\nsamples = 34\nvalue = [11, 23]\nclass = t", fillcolor="#98ccf1"] ;
194 -> 195 ;
196 [label="BusinessTravel_Travel_Frequently <= 0.5\ngini = 0.488\nsamples = 19\nvalue = [11, 8]\nclass = A", fillcolor="#f8ddc9"] ;
195 -> 196 ;
197 [label="DistanceFromHome <= 2.137\ngini = 0.26\nsamples = 13\nvalue = [11, 2]\nclass = A", fillcolor="#ea985d"] ;
196 -> 197 ;
198 [label="gini = 0.0\nsamples = 11\nvalue = [11, 0]\nclass = A", fillcolor="#e58139"] ;
197 -> 198 ;
199 [label="gini = 0.0\nsamples = 2\nvalue = [0, 2]\nclass = t", fillcolor="#399de5"] ;
197 -> 199 ;
200 [label="gini = 0.0\nsamples = 6\nvalue = [0, 6]\nclass = t", fillcolor="#399de5"] ;
196 -> 200 ;
201 [label="gini = 0.0\nsamples = 15\nvalue = [0, 15]\nclass = t", fillcolor="#399de5"] ;
195 -> 201 ;
202 [label="TrainingTimesLastYear <= 0.545\ngini = 0.386\nsamples = 149\nvalue = [110, 39]\nclass = A", fillcolor="#eeae7f"] ;
194 -> 202 ;
203 [label="YearsSinceLastPromotion <= 1.028\ngini = 0.442\nsamples = 109\nvalue = [73, 36]\nclass = A", fillcolor="#f2bf9b"] ;
202 -> 203 ;
204 [label="YearsAtCompany <= -0.082\ngini = 0.407\nsamples = 102\nvalue = [73, 29]\nclass = A", fillcolor="#efb388"] ;
203 -> 204 ;
205 [label="hrs <= 0.178\ngini = 0.488\nsamples = 64\nvalue = [37, 27]\nclass = A", fillcolor="#f8ddc9"] ;
204 -> 205 ;
206 [label="gini = 0.461\nsamples = 36\nvalue = [13, 23]\nclass = t", fillcolor="#a9d4f4"] ;
205 -> 206 ;
207 [label="gini = 0.245\nsamples = 28\nvalue = [24, 4]\nclass = A", fillcolor="#e9965a"] ;
205 -> 207 ;
208 [label="YearsSinceLastPromotion <= 0.097\ngini = 0.1\nsamples = 38\nvalue = [36, 2]\nclass = A", fillcolor="#e68844"] ;
204 -> 208 ;
209 [label="gini = 0.0\nsamples = 34\nvalue = [34, 0]\nclass = A", fillcolor="#e58139"] ;
208 -> 209 ;
210 [label="gini = 0.5\nsamples = 4\nvalue = [2, 2]\nclass = A", fillcolor="#ffffff"] ;
208 -> 210 ;
211 [label="gini = 0.0\nsamples = 7\nvalue = [0, 7]\nclass = t", fillcolor="#399de5"] ;
203 -> 211 ;
212 [label="YearsWithCurrManager <= 1.087\ngini = 0.139\nsamples = 40\nvalue = [37, 3]\nclass = A", fillcolor="#e78b49"] ;
202 -> 212 ;
213 [label="gini = 0.0\nsamples = 35\nvalue = [35, 0]\nclass = A", fillcolor="#e58139"] ;
212 -> 213 ;
214 [label="Department_Sales <= 0.5\ngini = 0.48\nsamples = 5\nvalue = [2, 3]\nclass = t", fillcolor="#bddef6"] ;
212 -> 214 ;
215 [label="gini = 0.0\nsamples = 3\nvalue = [0, 3]\nclass = t", fillcolor="#399de5"] ;
214 -> 215 ;
216 [label="gini = 0.0\nsamples = 2\nvalue = [2, 0]\nclass = A", fillcolor="#e58139"] ;
214 -> 216 ;
217 [label="Education <= -1.38\ngini = 0.15\nsamples = 86\nvalue = [79, 7]\nclass = A", fillcolor="#e78c4b"] ;
193 -> 217 ;
218 [label="gini = 0.0\nsamples = 3\nvalue = [0, 3]\nclass = t", fillcolor="#399de5"] ;
217 -> 218 ;
219 [label="YearsSinceLastPromotion <= 1.339\ngini = 0.092\nsamples = 83\nvalue = [79, 4]\nclass = A", fillcolor="#e68743"] ;
217 -> 219 ;
220 [label="gini = 0.0\nsamples = 76\nvalue = [76, 0]\nclass = A", fillcolor="#e58139"] ;
219 -> 220 ;
221 [label="Department_Sales <= 0.5\ngini = 0.49\nsamples = 7\nvalue = [3, 4]\nclass = t", fillcolor="#cee6f8"] ;
219 -> 221 ;
222 [label="gini = 0.0\nsamples = 3\nvalue = [0, 3]\nclass = t", fillcolor="#399de5"] ;
221 -> 222 ;
223 [label="JobRole_Laboratory Technician <= 0.5\ngini = 0.375\nsamples = 4\nvalue = [3, 1]\nclass = A", fillcolor="#eeab7b"] ;
221 -> 223 ;
224 [label="gini = 0.0\nsamples = 3\nvalue = [3, 0]\nclass = A", fillcolor="#e58139"] ;
223 -> 224 ;
225 [label="gini = 0.0\nsamples = 1\nvalue = [0, 1]\nclass = t", fillcolor="#399de5"] ;
223 -> 225 ;
226 [label="JobSatisfaction <= -1.119\ngini = 0.246\nsamples = 523\nvalue = [448, 75]\nclass = A", fillcolor="#e9965a"] ;
180 -> 226 ;
227 [label="DistanceFromHome <= 0.656\ngini = 0.417\nsamples = 91\nvalue = [64, 27]\nclass = A", fillcolor="#f0b68d"] ;
226 -> 227 ;
228 [label="YearsSinceLastPromotion <= 3.201\ngini = 0.31\nsamples = 73\nvalue = [59, 14]\nclass = A", fillcolor="#eb9f68"] ;
227 -> 228 ;
229 [label="JobRole_Research Director <= 0.5\ngini = 0.23\nsamples = 68\nvalue = [59, 9]\nclass = A", fillcolor="#e99457"] ;
228 -> 229 ;
230 [label="TrainingTimesLastYear <= -1.008\ngini = 0.123\nsamples = 61\nvalue = [57, 4]\nclass = A", fillcolor="#e78a47"] ;
229 -> 230 ;
231 [label="gini = 0.0\nsamples = 2\nvalue = [0, 2]\nclass = t", fillcolor="#399de5"] ;
230 -> 231 ;
232 [label="Education <= 1.55\ngini = 0.065\nsamples = 59\nvalue = [57, 2]\nclass = A", fillcolor="#e68540"] ;
230 -> 232 ;
233 [label="PercentSalaryHike <= 1.446\ngini = 0.034\nsamples = 58\nvalue = [57, 1]\nclass = A", fillcolor="#e5833c"] ;
232 -> 233 ;
234 [label="gini = 0.0\nsamples = 53\nvalue = [53, 0]\nclass = A", fillcolor="#e58139"] ;
233 -> 234 ;
235 [label="gini = 0.32\nsamples = 5\nvalue = [4, 1]\nclass = A", fillcolor="#eca06a"] ;
233 -> 235 ;
236 [label="gini = 0.0\nsamples = 1\nvalue = [0, 1]\nclass = t", fillcolor="#399de5"] ;
232 -> 236 ;
237 [label="YearsWithCurrManager <= 0.527\ngini = 0.408\nsamples = 7\nvalue = [2, 5]\nclass = t", fillcolor="#88c4ef"] ;
229 -> 237 ;
238 [label="gini = 0.0\nsamples = 5\nvalue = [0, 5]\nclass = t", fillcolor="#399de5"] ;
237 -> 238 ;
239 [label="gini = 0.0\nsamples = 2\nvalue = [2, 0]\nclass = A", fillcolor="#e58139"] ;
237 -> 239 ;
240 [label="gini = 0.0\nsamples = 5\nvalue = [0, 5]\nclass = t", fillcolor="#399de5"] ;
228 -> 240 ;
241 [label="Gender_Female <= 0.5\ngini = 0.401\nsamples = 18\nvalue = [5, 13]\nclass = t", fillcolor="#85c3ef"] ;
227 -> 241 ;
242 [label="gini = 0.0\nsamples = 11\nvalue = [0, 11]\nclass = t", fillcolor="#399de5"] ;
241 -> 242 ;
243 [label="EnvironmentSatisfaction <= -0.207\ngini = 0.408\nsamples = 7\nvalue = [5, 2]\nclass = A", fillcolor="#efb388"] ;
241 -> 243 ;
244 [label="gini = 0.0\nsamples = 2\nvalue = [0, 2]\nclass = t", fillcolor="#399de5"] ;
243 -> 244 ;
245 [label="gini = 0.0\nsamples = 5\nvalue = [5, 0]\nclass = A", fillcolor="#e58139"] ;
243 -> 245 ;
246 [label="Department_Human Resources <= 0.5\ngini = 0.198\nsamples = 432\nvalue = [384, 48]\nclass = A", fillcolor="#e89152"] ;
226 -> 246 ;
247 [label="MonthlyIncome <= -0.972\ngini = 0.167\nsamples = 402\nvalue = [365, 37]\nclass = A", fillcolor="#e88e4d"] ;
246 -> 247 ;
248 [label="MonthlyIncome <= -1.099\ngini = 0.444\nsamples = 6\nvalue = [2, 4]\nclass = t", fillcolor="#9ccef2"] ;
247 -> 248 ;
249 [label="gini = 0.0\nsamples = 2\nvalue = [2, 0]\nclass = A", fillcolor="#e58139"] ;
248 -> 249 ;
250 [label="gini = 0.0\nsamples = 4\nvalue = [0, 4]\nclass = t", fillcolor="#399de5"] ;
248 -> 250 ;
251 [label="YearsAtCompany <= -1.063\ngini = 0.153\nsamples = 396\nvalue = [363, 33]\nclass = A", fillcolor="#e78c4b"] ;
247 -> 251 ;
252 [label="StockOptionLevel <= -0.345\ngini = 0.497\nsamples = 13\nvalue = [7, 6]\nclass = A", fillcolor="#fbede3"] ;
251 -> 252 ;
253 [label="DistanceFromHome <= 0.224\ngini = 0.375\nsamples = 8\nvalue = [2, 6]\nclass = t", fillcolor="#7bbeee"] ;
252 -> 253 ;
254 [label="gini = 0.0\nsamples = 6\nvalue = [0, 6]\nclass = t", fillcolor="#399de5"] ;
253 -> 254 ;
255 [label="gini = 0.0\nsamples = 2\nvalue = [2, 0]\nclass = A", fillcolor="#e58139"] ;
253 -> 255 ;
256 [label="gini = 0.0\nsamples = 5\nvalue = [5, 0]\nclass = A", fillcolor="#e58139"] ;
252 -> 256 ;
257 [label="TrainingTimesLastYear <= -1.008\ngini = 0.131\nsamples = 383\nvalue = [356, 27]\nclass = A", fillcolor="#e78b48"] ;
251 -> 257 ;
258 [label="PercentSalaryHike <= 0.762\ngini = 0.394\nsamples = 37\nvalue = [27, 10]\nclass = A", fillcolor="#efb082"] ;
257 -> 258 ;
259 [label="StockOptionLevel <= 2.003\ngini = 0.198\nsamples = 27\nvalue = [24, 3]\nclass = A", fillcolor="#e89152"] ;
258 -> 259 ;
260 [label="gini = 0.0\nsamples = 24\nvalue = [24, 0]\nclass = A", fillcolor="#e58139"] ;
259 -> 260 ;
261 [label="gini = 0.0\nsamples = 3\nvalue = [0, 3]\nclass = t", fillcolor="#399de5"] ;
259 -> 261 ;
262 [label="StockOptionLevel <= 0.829\ngini = 0.42\nsamples = 10\nvalue = [3, 7]\nclass = t", fillcolor="#8ec7f0"] ;
258 -> 262 ;
263 [label="gini = 0.219\nsamples = 8\nvalue = [1, 7]\nclass = t", fillcolor="#55abe9"] ;
262 -> 263 ;
264 [label="gini = 0.0\nsamples = 2\nvalue = [2, 0]\nclass = A", fillcolor="#e58139"] ;
262 -> 264 ;
265 [label="TotalWorkingYears <= 3.566\ngini = 0.093\nsamples = 346\nvalue = [329, 17]\nclass = A", fillcolor="#e68843"] ;
257 -> 265 ;
266 [label="NumCompaniesWorked <= 1.928\ngini = 0.088\nsamples = 345\nvalue = [329, 16]\nclass = A", fillcolor="#e68743"] ;
265 -> 266 ;
267 [label="gini = 0.061\nsamples = 318\nvalue = [308, 10]\nclass = A", fillcolor="#e6853f"] ;
266 -> 267 ;
268 [label="gini = 0.346\nsamples = 27\nvalue = [21, 6]\nclass = A", fillcolor="#eca572"] ;
266 -> 268 ;
269 [label="gini = 0.0\nsamples = 1\nvalue = [0, 1]\nclass = t", fillcolor="#399de5"] ;
265 -> 269 ;
270 [label="NumCompaniesWorked <= -0.478\ngini = 0.464\nsamples = 30\nvalue = [19, 11]\nclass = A", fillcolor="#f4caac"] ;
246 -> 270 ;
271 [label="gini = 0.0\nsamples = 8\nvalue = [0, 8]\nclass = t", fillcolor="#399de5"] ;
270 -> 271 ;
272 [label="JobLevel <= 1.298\ngini = 0.236\nsamples = 22\nvalue = [19, 3]\nclass = A", fillcolor="#e99558"] ;
270 -> 272 ;
273 [label="YearsWithCurrManager <= 1.368\ngini = 0.095\nsamples = 20\nvalue = [19, 1]\nclass = A", fillcolor="#e68843"] ;
272 -> 273 ;
274 [label="gini = 0.0\nsamples = 19\nvalue = [19, 0]\nclass = A", fillcolor="#e58139"] ;
273 -> 274 ;
275 [label="gini = 0.0\nsamples = 1\nvalue = [0, 1]\nclass = t", fillcolor="#399de5"] ;
273 -> 275 ;
276 [label="gini = 0.0\nsamples = 2\nvalue = [0, 2]\nclass = t", fillcolor="#399de5"] ;
272 -> 276 ;
}